svm_type c_svc
kernel_type rbf
gamma 16
nr_class 2
total_sv 112
rho -0.285714
label 1 -1
nr_sv 72 40
SV
0.7138671875 1:871.05565 2:0.076339912 3:5.2213535 4:3439.164 5:1530.9221 6:1493.236 7:0.52149628 8:0.47750345 9:0.48422278 10:0.48691342 11:0.53138459 12:0.5344143 13:0.64745057 14:0.95960294 15:0.74457311 16:0.59622308 17:0.54552059 18:0.40629511 19:0.2525524 20:0.21951807 21:0.22369313 22:0.21790517 23:0.24092793 24:0.25001213 25:0.33114854 26:0.45563221 27:0.39743092 28:0.2835491 29:0.25123277 30:0.1681254 31:117.45384 
0.7138671875 1:562.52522 2:0.086041111 3:4.0591164 4:3758.6469 5:1660.697 6:1576.5488 7:0.58321793 8:0.54593972 9:0.54578063 10:0.55528723 11:0.52598784 12:0.55144248 13:0.86041882 14:0.9047708 15:0.54298971 16:0.4656194 17:0.42656266 18:0.39285251 19:0.27894089 20:0.26036379 21:0.25037829 22:0.26317214 23:0.24594105 24:0.26202598 25:0.43179157 26:0.44365919 27:0.26756814 28:0.21017524 29:0.18796093 30:0.15210965 31:129.19922 
0.7138671875 1:677.53635 2:0.077440215 3:4.5965548 4:3415.061 5:1526.022 6:1485.7677 7:0.58555479 8:0.571012 9:0.57778255 10:0.6431944 11:0.65695518 12:0.60747754 13:0.82011574 14:0.86735227 15:0.66131059 16:0.65721396 17:0.53113954 18:0.41060144 19:0.25561702 20:0.23818639 21:0.25111268 22:0.28425305 23:0.29228422 24:0.26165888 25:0.38654023 26:0.40197855 27:0.29438586 28:0.28901809 29:0.22233654 30:0.14164086 31:117.45384 
0.7138671875 1:860.40574 2:0.080388412 3:5.2062616 4:3443.7479 5:1542.4223 6:1490.3333 7:0.61427507 8:0.59534746 9:0.5947779 10:0.66901838 11:0.70330307 12:0.67916743 13:0.6827537 14:0.82714333 15:0.73148076 16:0.6973639 17:0.59917745 18:0.45713783 19:0.26435919 20:0.25252724 21:0.24413168 22:0.2825799 23:0.30312889 24:0.29887891 25:0.30207924 26:0.3659275 27:0.33273185 28:0.30242274 29:0.24924728 30:0.16331485 31:129.19922 
0.7138671875 1:1008.7197 2:0.089996646 3:5.6334214 4:3726.1142 5:1671.0263 6:1557.6246 7:0.5452601 8:0.55032612 9:0.5603268 10:0.51023783 11:0.47980271 12:0.53354538 13:0.9399798 14:0.8870067 15:0.5178738 16:0.44756383 17:0.40551348 18:0.38030804 19:0.26153322 20:0.2681784 21:0.26788997 22:0.24091916 23:0.22190643 24:0.26378971 25:0.46741594 26:0.45825231 27:0.25313895 28:0.21177858 29:0.17885494 30:0.14355003 31:129.19922 
0.7138671875 1:793.07543 2:0.083180008 3:4.9950428 4:3454.8828 5:1553.1029 6:1488.4374 7:0.60726814 8:0.61847573 9:0.62655363 10:0.6857865 11:0.69002922 12:0.64710501 13:0.6971776 14:0.87860096 15:0.72314031 16:0.69048425 17:0.62394685 18:0.46135382 19:0.25173425 20:0.25468113 21:0.25382393 22:0.29667648 23:0.2960459 24:0.28058272 25:0.29979147 26:0.39462028 27:0.31928613 28:0.29288398 29:0.25909798 30:0.16521173 31:129.19922 
0.7138671875 1:838.46844 2:0.077426781 3:5.115778 4:3438.3688 5:1532.4292 6:1490.3425 7:0.55710177 8:0.52428617 9:0.53455803 10:0.60359021 11:0.64157072 12:0.60322498 13:0.69774015 14:0.93599961 15:0.69667729 16:0.59246167 17:0.52839215 18:0.40967794 19:0.24530149 20:0.23098853 21:0.23830129 22:0.26911042 23:0.30016209 24:0.27232279 25:0.34460908 26:0.44123593 27:0.33487576 28:0.26511378 29:0.23118396 30:0.15117586 31:117.45384 
0.7138671875 1:1062.728 2:0.079936058 3:5.8001952 4:3484.9041 5:1556.9716 6:1502.4221 7:0.58791992 8:0.57151478 9:0.5254434 10:0.52813707 11:0.5767809 12:0.57391818 13:0.67688829 14:0.92372111 15:0.71899045 16:0.62511016 17:0.54164747 18:0.42438633 19:0.26575476 20:0.2549004 21:0.23045612 22:0.23071772 23:0.25248417 24:0.26126959 25:0.33493256 26:0.43485056 27:0.36073801 28:0.28647274 29:0.24211229 30:0.16710802 31:129.19922 
0.7138671875 1:579.72041 2:0.087477651 3:4.1951876 4:3801.9495 5:1670.6538 6:1588.0102 7:0.59929151 8:0.56826407 9:0.57062899 10:0.5061863 11:0.47796831 12:0.56134402 13:0.9299576 14:0.88050253 15:0.52577132 16:0.45126158 17:0.4133927 18:0.39772645 19:0.28794599 20:0.27676803 21:0.27721675 22:0.23609474 23:0.2221962 24:0.26838788 25:0.45747821 26:0.44799036 27:0.25093688 28:0.19871354 29:0.16633093 30:0.15868765 31:117.45384 
0.7138671875 1:882.56621 2:0.0667432 3:5.2447753 4:3260.9247 5:1450.4132 6:1458.261 7:0.54183942 8:0.52814473 9:0.53045162 10:0.50018622 11:0.45061898 12:0.47404175 13:0.72536511 14:0.94769933 15:0.63870078 16:0.48304221 17:0.45359995 18:0.42066717 19:0.25907948 20:0.25048389 21:0.2571202 22:0.23637369 23:0.20234314 24:0.22137853 25:0.38895997 26:0.48022647 27:0.33483805 28:0.21986584 29:0.20544153 30:0.18106006 31:129.19922 
0.7138671875 1:966.22631 2:0.094781479 3:5.5101986 4:3763.9934 5:1689.8707 6:1564.1831 7:0.71432546 8:0.66813581 9:0.66473276 10:0.60478419 11:0.54442076 12:0.57724577 13:0.78577436 14:0.891747 15:0.64742624 16:0.58399232 17:0.53048883 18:0.49715099 19:0.31756524 20:0.29204209 21:0.29713945 22:0.25642936 23:0.21933374 24:0.23624336 25:0.36008658 26:0.42084238 27:0.2876651 28:0.24212589 29:0.21226539 30:0.19584842 31:129.19922 
0.7138671875 1:669.2058 2:0.075178434 3:4.5319853 4:3294.5801 5:1464.7252 6:1448.0937 7:0.48843421 8:0.5005213 9:0.54737899 10:0.5063942 11:0.46156654 12:0.48858293 13:0.72151187 14:0.95593475 15:0.64839596 16:0.52255328 17:0.4396598 18:0.3985343 19:0.22964991 20:0.23804135 21:0.26624059 22:0.24650528 23:0.21833483 24:0.23617357 25:0.40196609 26:0.45958491 27:0.3586293 28:0.25181845 29:0.20335491 30:0.16827458 31:129.19922 
0.7138671875 1:573.59613 2:0.13702851 3:4.1020503 4:4020.2959 5:1754.117 6:1646.614 7:0.58986055 8:0.55331082 9:0.51311201 10:0.49334773 11:0.46347939 12:0.45112145 13:0.74610431 14:0.87676968 15:0.58766711 16:0.50969722 17:0.50688247 18:0.46600185 19:0.2913788 20:0.26963437 21:0.22925083 22:0.22041319 23:0.20838718 24:0.20691384 25:0.38252093 26:0.44136951 27:0.30657707 28:0.23087862 29:0.22686785 30:0.20276602 31:129.19922 
0.7138671875 1:696.76651 2:0.081647687 3:4.6781902 4:3450.038 5:1547.0279 6:1492.9516 7:0.6214676 8:0.59488436 9:0.57543276 10:0.63263273 11:0.67049145 12:0.67530708 13:0.75466559 14:0.88078618 15:0.66899255 16:0.65941335 17:0.56605636 18:0.44260499 19:0.27036181 20:0.24784103 21:0.23699488 22:0.26980504 23:0.28891246 24:0.29600345 25:0.34943402 26:0.40753215 27:0.29812321 28:0.28368724 29:0.2371401 30:0.1569338 31:117.45384 
0.7138671875 1:844.99432 2:0.081314618 3:5.137382 4:3466.8725 5:1558.2873 6:1495.2487 7:0.66074074 8:0.64869585 9:0.65454285 10:0.73388614 11:0.76531136 12:0.68424959 13:0.69590724 14:0.79989112 15:0.71238071 16:0.70920619 17:0.59462252 18:0.46451925 19:0.26978945 20:0.27144897 21:0.26767955 22:0.31621303 23:0.33009003 24:0.28433419 25:0.29214607 26:0.35134317 27:0.30003676 28:0.29911659 29:0.23548071 30:0.16242801 31:129.19922 
0.7138671875 1:774.81726 2:0.096584413 3:4.9119015 4:3621.1232 5:1664.0997 6:1530.219 7:0.60148666 8:0.57646014 9:0.60901044 10:0.53827559 11:0.49303242 12:0.52800743 13:0.6362205 14:0.95649268 15:0.71928178 16:0.50713728 17:0.4605231 18:0.42369272 19:0.28949056 20:0.26910232 21:0.29287453 22:0.24729941 23:0.21380063 24:0.24655666 25:0.31765965 26:0.44873578 27:0.37143197 28:0.21805809 29:0.20499909 30:0.1810816 31:117.45384 
0.71484375 1:807.16897 2:0.07660061 3:5.0231185 4:3469.4192 5:1539.425 6:1496.6031 7:0.53065822 8:0.52258815 9:0.49865472 10:0.50527067 11:0.50593799 12:0.49621254 13:0.68459569 14:0.93327691 15:0.67090571 16:0.61460328 17:0.52347951 18:0.40141699 19:0.24223923 20:0.24038475 21:0.22702998 22:0.22869742 23:0.23948513 24:0.22648009 25:0.37180561 26:0.44503726 27:0.35708267 28:0.29505484 29:0.24444607 30:0.15590581 31:129.19922 
0.71484375 1:1264.009 2:0.071665027 3:6.3401003 4:3387.4127 5:1500.0739 6:1484.2123 7:0.50921847 8:0.53341026 9:0.55677732 10:0.53774154 11:0.50494872 12:0.56492162 13:0.94722015 14:0.82474688 15:0.48915397 16:0.46856908 17:0.44811507 18:0.41164989 19:0.23752139 20:0.25833797 21:0.27568772 22:0.24669009 23:0.23668399 24:0.27807013 25:0.46911591 26:0.43848685 27:0.22369224 28:0.21796241 29:0.20078466 30:0.16793625 31:129.19922 
0.71484375 1:706.85042 2:0.083080872 3:4.7034988 4:3515.3357 5:1577.4925 6:1504.8294 7:0.60643141 8:0.59033868 9:0.60750531 10:0.63736931 11:0.63629742 12:0.61531118 13:0.8554914 14:0.83021581 15:0.68123807 16:0.66896198 17:0.52190085 18:0.44001811 19:0.26348424 20:0.25950602 21:0.26455488 22:0.27594719 23:0.27273226 24:0.25919742 25:0.39421049 26:0.38224118 27:0.29956709 28:0.29283862 29:0.21130656 30:0.15707136 31:117.45384 
0.71484375 1:723.17092 2:0.095013162 3:4.7868471 4:3770.6251 5:1638.8796 6:1573.5655 7:0.75000221 8:0.69953612 9:0.66491124 10:0.61553673 11:0.58605393 12:0.58547192 13:0.7239982 14:0.86492772 15:0.63201723 16:0.58558279 17:0.63078574 18:0.5870528 19:0.3292365 20:0.30005536 21:0.28044341 22:0.25655911 23:0.23839522 24:0.24283342 25:0.32069747 26:0.39427884 27:0.25909127 28:0.23905097 29:0.26085527 30:0.24738699 31:117.45384 
0.71484375 1:725.91834 2:0.077880251 3:4.8068743 4:3442.0637 5:1538.2738 6:1492.7444 7:0.57163623 8:0.57470366 9:0.62116649 10:0.69684523 11:0.70085699 12:0.61821758 13:0.86335019 14:0.86389947 15:0.67334895 16:0.66855138 17:0.52783321 18:0.43593003 19:0.23878928 20:0.23515096 21:0.25926247 22:0.3046189 23:0.30628991 24:0.25531151 25:0.39252806 26:0.39794856 27:0.28802458 28:0.28031665 29:0.20671139 30:0.16264512 31:129.19922 
0.71484375 1:551.56013 2:0.079701791 3:4.1180511 4:3435.2024 5:1532.3195 6:1487.8049 7:0.5795972 8:0.54882232 9:0.56882502 10:0.62515963 11:0.65003193 12:0.62219006 13:0.66047799 14:0.86918959 15:0.72740421 16:0.64158944 17:0.57644174 18:0.45086785 19:0.25233112 20:0.23545579 21:0.24800295 22:0.27790992 23:0.2914606 24:0.27411707 25:0.31210843 26:0.39891044 27:0.34969085 28:0.27935516 29:0.24408965 30:0.16738252 31:117.45384 
0.71484375 1:491.37251 2:0.11793435 3:3.8187628 4:3958.3437 5:1866.9094 6:1592.1229 7:0.65536611 8:0.6368994 9:0.64288834 10:0.59528761 11:0.58639379 12:0.5920092 13:0.82364533 14:0.8528107 15:0.6278133 16:0.59572173 17:0.53070049 18:0.50916065 19:0.29154418 20:0.28233726 21:0.28569152 22:0.25578119 23:0.25860133 24:0.2506293 25:0.38216954 26:0.38974248 27:0.27495565 28:0.25520207 29:0.20775091 30:0.207212 31:129.19922 
0.71484375 1:690.24326 2:0.11005686 3:4.641314 4:3927.4524 5:1809.346 6:1608.9473 7:0.67366985 8:0.62703695 9:0.62254612 10:0.6163126 11:0.63230274 12:0.58823777 13:0.72549873 14:0.89071802 15:0.67304761 16:0.60478039 17:0.70207231 18:0.61534879 19:0.28666963 20:0.2675185 21:0.25985261 22:0.25893489 23:0.25909543 24:0.24221933 25:0.3218306 26:0.4010443 27:0.29259238 28:0.24679468 29:0.2979744 30:0.24985915 31:129.19922 
0.71484375 1:954.62202 2:0.075827696 3:5.5106153 4:3406.8153 5:1512.9893 6:1485.0342 7:0.52270977 8:0.54453143 9:0.52205978 10:0.55057141 11:0.60714204 12:0.57851197 13:0.71561597 14:0.89674866 15:0.68365455 16:0.63607404 17:0.54223633 18:0.40983224 19:0.23650132 20:0.24354697 21:0.23085187 22:0.23787895 23:0.27750784 24:0.26118669 25:0.36453242 26:0.41537681 27:0.34712076 28:0.29464669 29:0.23996389 30:0.15502118 31:117.45384 
0.71484375 1:831.1865 2:0.075743744 3:5.0911093 4:3392.0256 5:1510.3338 6:1484.1518 7:0.49278117 8:0.45206746 9:0.45986254 10:0.51141616 11:0.52779491 12:0.5382639 13:0.67343688 14:0.93838733 15:0.69279537 16:0.54889428 17:0.48517857 18:0.36507658 19:0.23534867 20:0.21794759 21:0.21539681 22:0.24230975 23:0.25463503 24:0.25918737 25:0.36847041 26:0.45564985 27:0.37862686 28:0.26371114 29:0.22804074 30:0.14217408 31:129.19922 
0.71484375 1:763.96161 2:0.078849085 3:4.8348179 4:3444.4984 5:1535.7931 6:1492.0675 7:0.57272719 8:0.57497483 9:0.5689351 10:0.61651564 11:0.66084747 12:0.6151269 13:0.7127329 14:0.90008462 15:0.67849732 16:0.63541295 17:0.5861941 18:0.43573108 19:0.2377688 20:0.24734483 21:0.24653074 22:0.2682159 23:0.30301045 24:0.27347916 25:0.33750484 26:0.41399228 27:0.31715447 28:0.27803182 29:0.24901499 30:0.15693773 31:117.45384 
0.71484375 1:852.24116 2:0.081635574 3:5.1808481 4:3471.8577 5:1553.8302 6:1494.4281 7:0.58025308 8:0.56237078 9:0.56586635 10:0.66016838 11:0.68928253 12:0.65646649 13:0.69638455 14:0.85330569 15:0.69159466 16:0.64740165 17:0.54794205 18:0.43084706 19:0.26255764 20:0.24157066 21:0.23626674 22:0.29890736 23:0.31290799 24:0.29327256 25:0.32803137 26:0.38409315 27:0.31831971 28:0.28159081 29:0.22438707 30:0.16005625 31:117.45384 
0.71484375 1:789.56366 2:0.07880954 3:4.997468 4:3425.7866 5:1518.7693 6:1482.9197 7:0.57786539 8:0.56114194 9:0.55326689 10:0.62182687 11:0.68380614 12:0.65591225 13:0.64331978 14:0.88542448 15:0.75284017 16:0.66269915 17:0.63645663 18:0.45534532 19:0.24626591 20:0.24153453 21:0.23060821 22:0.27736943 23:0.30398584 24:0.28674078 25:0.2765145 26:0.40107889 27:0.34868923 28:0.2848822 29:0.27132412 30:0.1703642 31:129.19922 
0.71484375 1:956.45409 2:0.079389768 3:5.5184212 4:3460.9897 5:1547.4515 6:1494.8047 7:0.59371308 8:0.55722594 9:0.56834642 10:0.57764027 11:0.56504312 12:0.53448082 13:0.8481997 14:0.86647329 15:0.67105569 16:0.66558944 17:0.51573139 18:0.43583499 19:0.2663519 20:0.24486661 21:0.25696182 22:0.25005929 23:0.23935308 24:0.23722697 25:0.40650974 26:0.40787352 27:0.31394617 28:0.30276738 29:0.21573722 30:0.16518393 31:117.45384 
0.71484375 1:547.95343 2:0.098089748 3:4.0751863 4:3763.9251 5:1715.3191 6:1561.7867 7:0.61168349 8:0.59833036 9:0.62744019 10:0.5584188 11:0.50673092 12:0.54492294 13:0.65466591 14:0.90243265 15:0.68684032 16:0.49311577 17:0.4863832 18:0.45250102 19:0.2829312 20:0.28089823 21:0.29417273 22:0.25246032 23:0.23208008 24:0.25103915 25:0.33376645 26:0.42634034 27:0.34917608 28:0.21934862 29:0.21004839 30:0.19321277 31:129.19922 
0.71484375 1:851.28984 2:0.082526677 3:5.187892 4:3484.0197 5:1565.5105 6:1497.3201 7:0.66557595 8:0.6150799 9:0.63219382 10:0.6461102 11:0.63674154 12:0.60504773 13:0.81694434 14:0.85033846 15:0.73819711 16:0.7379139 17:0.56743622 18:0.48855754 19:0.27635118 20:0.25069495 21:0.25519923 22:0.2621793 23:0.25680053 24:0.24099864 25:0.37194577 26:0.38209695 27:0.3246995 28:0.32187461 29:0.22682419 30:0.18334051 31:129.19922 
0.71484375 1:396.08318 2:0.081525061 3:3.5012033 4:3441.048 5:1550.1905 6:1488.5299 7:0.59746987 8:0.55917501 9:0.5772735 10:0.64077776 11:0.6494609 12:0.5955588 13:0.88142352 14:0.92871349 15:0.66695733 16:0.64240435 17:0.50891629 18:0.40112375 19:0.25281009 20:0.23432677 21:0.24362505 22:0.27095319 23:0.28159985 24:0.24956465 25:0.42557298 26:0.43630042 27:0.29027478 28:0.27288936 29:0.20346675 30:0.12975381 31:129.19922 
0.71484375 1:873.97278 2:0.092710277 3:5.199913 4:3762.6326 5:1663.2547 6:1569.1318 7:0.5850112 8:0.53209762 9:0.50738236 10:0.54819255 11:0.60702507 12:0.61637494 13:0.88686663 14:0.8529053 15:0.61139527 16:0.54666003 17:0.49920532 18:0.49046451 19:0.27464203 20:0.2384313 21:0.22276273 22:0.24766977 23:0.27491098 24:0.28080037 25:0.42137928 26:0.41364401 27:0.27992866 28:0.2356678 29:0.21008867 30:0.20841682 31:117.45384 
0.71484375 1:586.19803 2:0.090633512 3:4.2214112 4:3744.9786 5:1665.9587 6:1568.0051 7:0.54218429 8:0.56395438 9:0.56385168 10:0.49865707 11:0.48597821 12:0.56827148 13:0.93754452 14:0.87564124 15:0.54498671 16:0.45798257 17:0.41932599 18:0.38358114 19:0.25924453 20:0.28216458 21:0.2678442 22:0.23203264 23:0.22067975 24:0.28111472 25:0.46084498 26:0.4478535 27:0.25442534 28:0.20324372 29:0.18259524 30:0.15736048 31:117.45384 
0.71484375 1:800.88319 2:0.075879384 3:4.9517717 4:3393.0589 5:1508.3813 6:1486.5755 7:0.51817553 8:0.4937841 9:0.4951908 10:0.54954902 11:0.57715384 12:0.54033376 13:0.65818401 14:0.9511903 15:0.70163767 16:0.53070069 17:0.46225785 18:0.37326601 19:0.23655512 20:0.22766884 21:0.22615704 22:0.2612872 23:0.2763356 24:0.25795589 25:0.35619993 26:0.45628031 27:0.37469784 28:0.24388094 29:0.2142189 30:0.14076912 31:117.45384 
0.71484375 1:447.1192 2:0.067022014 3:3.6380339 4:3313.4879 5:1460.633 6:1477.7299 7:0.54835159 8:0.50249178 9:0.51082379 10:0.47756495 11:0.45166143 12:0.46329915 13:0.87085442 14:0.93726452 15:0.55905327 16:0.47966204 17:0.43394428 18:0.39127948 19:0.28248157 20:0.24613735 21:0.25075872 22:0.21686882 23:0.20460831 24:0.22181315 25:0.44523975 26:0.46920469 27:0.28997219 28:0.22788615 29:0.20303235 30:0.16444517 31:129.19922 
0.71484375 1:834.97771 2:0.064014499 3:5.0386972 4:3204.1198 5:1414.0886 6:1442.0289 7:0.45588599 8:0.43132918 9:0.45482148 10:0.4819415 11:0.47587081 12:0.5009677 13:0.72749942 14:0.96365534 15:0.6170507 16:0.43777668 17:0.41056759 18:0.35464361 19:0.22244217 20:0.20298754 21:0.21738636 22:0.23373149 23:0.2352483 24:0.25618158 25:0.42147432 26:0.50071565 27:0.35462908 28:0.20321426 29:0.18635759 30:0.13738771 31:117.45384 
0.71484375 1:974.22571 2:0.075818498 3:5.5321527 4:3377.0538 5:1511.3711 6:1479.1264 7:0.5044407 8:0.47793506 9:0.49348406 10:0.56700184 11:0.58692489 12:0.5441667 13:0.64883909 14:0.95178247 15:0.71671594 16:0.55765112 17:0.50389249 18:0.39106806 19:0.22960571 20:0.21742865 21:0.22096547 22:0.26646409 23:0.27954246 24:0.25456948 25:0.3367753 26:0.46038263 27:0.37646291 28:0.26100486 29:0.22870896 30:0.14683489 31:129.19922 
0.71484375 1:791.12147 2:0.082107963 3:5.0183678 4:3452.3739 5:1549.5892 6:1490.7072 7:0.66295242 8:0.62380416 9:0.6451702 10:0.69661711 11:0.70868341 12:0.64324795 13:0.84466622 14:0.83897751 15:0.67272562 16:0.67657446 17:0.52865521 18:0.44082774 19:0.2739606 20:0.25684193 21:0.26548379 22:0.30448881 23:0.30650884 24:0.26806662 25:0.37429252 26:0.38159015 27:0.27698084 28:0.27659826 29:0.20288252 30:0.16194712 31:117.45384 
0.71484375 1:520.96256 2:0.071587323 3:3.944829 4:3436.4287 5:1519.5046 6:1497.7668 7:0.46421563 8:0.448779 9:0.44866986 10:0.48218853 11:0.50614018 12:0.48690572 13:0.88127758 14:0.92909874 15:0.58179193 16:0.54719504 17:0.42656309 18:0.3537096 19:0.21120486 20:0.20465058 21:0.20826414 22:0.23087163 23:0.24435206 24:0.23386043 25:0.45665473 26:0.47786159 27:0.31112673 28:0.27570193 29:0.18908423 30:0.12503254 31:117.45384 
0.71484375 1:1085.5192 2:0.082844658 3:5.8679152 4:3479.5675 5:1559.8312 6:1497.9247 7:0.67179713 8:0.64213512 9:0.60750173 10:0.61684995 11:0.66705701 12:0.61906786 13:0.6227121 14:0.85089589 15:0.75910497 16:0.73317845 17:0.67211266 18:0.50541823 19:0.28099026 20:0.27263063 21:0.25178479 22:0.24910815 23:0.28736154 24:0.25424588 25:0.26077179 26:0.38744188 27:0.33750684 28:0.31642789 29:0.28269483 30:0.1924206 31:117.45384 
0.71484375 1:800.46476 2:0.072622816 3:5.0031037 4:3395.4573 5:1503.1511 6:1486.414 7:0.44181581 8:0.45640782 9:0.4625944 10:0.50855444 11:0.53058269 12:0.48708832 13:0.67709929 14:0.9666251 15:0.6689482 16:0.52426632 17:0.47084829 18:0.34067246 19:0.21284866 20:0.22258746 21:0.2200078 22:0.25222191 23:0.26551417 24:0.24152652 25:0.38591126 26:0.46211863 27:0.37546918 28:0.26056035 29:0.22901963 30:0.11890994 31:129.19922 
0.71484375 1:389.64593 2:0.078802566 3:3.4772856 4:3450.0977 5:1539.8349 6:1492.8143 7:0.53475394 8:0.51658515 9:0.5484928 10:0.59005159 11:0.62509575 12:0.6298331 13:0.64126483 14:0.91692271 15:0.7531884 16:0.65847842 17:0.61604315 18:0.44192829 19:0.22727104 20:0.2199861 21:0.25096966 22:0.25902229 23:0.27813997 24:0.27885353 25:0.28978 26:0.43389581 27:0.36389775 28:0.29163646 29:0.27081053 30:0.16966575 31:117.45384 
0.71484375 1:712.05444 2:0.074209223 3:4.6864109 4:3433.5218 5:1478.562 6:1506.8303 7:0.82851872 8:0.74090487 9:0.62713892 10:0.57519951 11:0.54043244 12:0.50471804 13:0.64011572 14:0.80079691 15:0.6235145 16:0.55543024 17:0.57553968 18:0.54570855 19:0.39366245 20:0.34410625 21:0.28714634 22:0.24461877 23:0.22489347 24:0.20334079 25:0.2804023 26:0.37105995 27:0.27601053 28:0.23393185 29:0.24548567 30:0.22576673 31:129.19922 
0.71484375 1:877.44092 2:0.066933928 3:5.151432 4:3318.93 5:1455.9074 6:1478.3525 7:0.48010924 8:0.44367771 9:0.48504987 10:0.4854701 11:0.44103933 12:0.45123553 13:0.68842204 14:0.97039558 15:0.66015572 16:0.47877184 17:0.42688417 18:0.37412106 19:0.24153115 20:0.22101534 21:0.24549523 22:0.24549852 23:0.22239502 24:0.21643385 25:0.39027255 26:0.48187779 27:0.37969628 28:0.23002274 29:0.20223943 30:0.15973039 31:129.19922 
0.71484375 1:1037.6235 2:0.083375793 3:5.7673116 4:3482.6575 5:1568.4878 6:1499.9235 7:0.57360852 8:0.56450082 9:0.55959257 10:0.64356125 11:0.66610688 12:0.61132208 13:0.89566357 14:0.87266196 15:0.65017041 16:0.65176626 17:0.52625984 18:0.43580068 19:0.2403341 20:0.23911968 21:0.23728502 22:0.27402977 23:0.29370181 24:0.2636242 25:0.42063448 26:0.40849202 27:0.29024558 28:0.27877415 29:0.21269623 30:0.15180122 31:117.45384 
0.71484375 1:591.45426 2:0.072605613 3:4.1015859 4:3311.9661 5:1471.1334 6:1465.4635 7:0.58492521 8:0.56605051 9:0.59647176 10:0.58355787 11:0.53093423 12:0.50945501 13:0.69072274 14:0.91826841 15:0.6669668 16:0.52083938 17:0.52572866 18:0.4935257 19:0.26943277 20:0.25218799 21:0.2695676 22:0.25780202 23:0.23047811 24:0.23136085 25:0.34528956 26:0.44877619 27:0.33648326 28:0.22100583 29:0.22394549 30:0.21306553 31:129.19922 
0.71484375 1:719.56526 2:0.084219615 3:4.6925488 4:3600.503 5:1570.9013 6:1542.2571 7:0.69350703 8:0.61351736 9:0.56638609 10:0.55610412 11:0.54835649 12:0.55157782 13:0.69156067 14:0.87945883 15:0.70014121 16:0.6126408 17:0.60787666 18:0.54659224 19:0.31872331 20:0.26808315 21:0.24758875 22:0.2318799 23:0.23092077 24:0.23352953 25:0.33284136 26:0.40014134 27:0.32887471 28:0.26620627 29:0.25986655 30:0.23248396 31:117.45384 
0.71484375 1:632.53585 2:0.084495284 3:4.4666004 4:3465.664 5:1556.6346 6:1490.9481 7:0.64607982 8:0.62005246 9:0.68508894 10:0.73383438 11:0.75164081 12:0.69496407 13:0.78816224 14:0.7808655 15:0.68671809 16:0.72809809 17:0.57826796 18:0.4820965 19:0.26802045 20:0.246011 21:0.27897494 22:0.30862137 23:0.31565594 24:0.28917196 25:0.33844249 26:0.34406964 27:0.28333067 28:0.30388051 29:0.23360105 30:0.17393262 31:117.45384 
0.71484375 1:844.47924 2:0.082843048 3:5.1767344 4:3518.7428 5:1552.3911 6:1515.4389 7:0.60000652 8:0.6223831 9:0.63947946 10:0.59149759 11:0.55701756 12:0.54073688 13:0.63420708 14:0.9330415 15:0.77330894 16:0.59334429 17:0.52716428 18:0.4334844 19:0.26422872 20:0.27334447 21:0.28319812 22:0.25533956 23:0.24243931 24:0.24335038 25:0.29116917 26:0.43612903 27:0.38728413 28:0.26502027 29:0.22207754 30:0.15765949 31:129.19922 
0.71484375 1:592.54861 2:0.070683232 3:4.225462 4:3529.0243 5:1532.4163 6:1531.3257 7:0.50770279 8:0.53937722 9:0.51648965 10:0.47533118 11:0.45260109 12:0.51094722 13:0.93497829 14:0.90349821 15:0.53908581 16:0.46719237 17:0.38152125 18:0.3504355 19:0.2497529 20:0.27526854 21:0.2601816 22:0.23163002 23:0.21773106 24:0.25646533 25:0.4757726 26:0.45650286 27:0.27444545 28:0.22006775 29:0.16321935 30:0.12243494 31:129.19922 
0.71484375 1:621.60085 2:0.075373195 3:4.3526459 4:3443.1013 5:1525.7411 6:1492.6842 7:0.53759564 8:0.53211552 9:0.51778664 10:0.53351692 11:0.55763016 12:0.59288663 13:0.91842537 14:0.80722121 15:0.61192502 16:0.61728114 17:0.46213401 18:0.37667321 19:0.24689502 20:0.2400616 21:0.2407102 22:0.24420085 23:0.26257844 24:0.28268835 25:0.43650017 26:0.40986304 27:0.2948164 28:0.28806607 29:0.19439571 30:0.12443129 31:129.19922 
0.71484375 1:928.32692 2:0.078644107 3:5.394742 4:3445.53 5:1540.164 6:1494.5467 7:0.54030777 8:0.53011654 9:0.54843218 10:0.62891014 11:0.60445115 12:0.57568088 13:0.89082327 14:0.88145109 15:0.61806892 16:0.60464258 17:0.48104596 18:0.38464348 19:0.24321979 20:0.22952297 21:0.24732758 22:0.28281963 23:0.27802803 24:0.25355195 25:0.43401591 26:0.42204875 27:0.28704893 28:0.26598122 29:0.20139045 30:0.13329583 31:117.45384 
0.71484375 1:995.4405 2:0.086539132 3:5.519218 4:3775.7812 5:1660.755 6:1574.249 7:0.63135661 8:0.60167675 9:0.56602212 10:0.57291039 11:0.52638315 12:0.55937092 13:0.87224363 14:0.88862833 15:0.56191686 16:0.48979884 17:0.44764659 18:0.42482728 19:0.30395763 20:0.29168266 21:0.2586823 22:0.26672906 23:0.22997371 24:0.25357416 25:0.42370991 26:0.42175435 27:0.2528202 28:0.21575472 29:0.19214905 30:0.17235012 31:117.45384 
0.71484375 1:620.18103 2:0.1215231 3:4.3538928 4:3983.1918 5:1813.3976 6:1616.394 7:0.79340646 8:0.72332762 9:0.67975536 10:0.64765136 11:0.63408805 12:0.6172297 13:0.78764521 14:0.7981155 15:0.64993254 16:0.66609303 17:0.64742412 18:0.6095145 19:0.33973712 20:0.3017248 21:0.27953265 22:0.26476415 23:0.24708481 24:0.24181675 25:0.340479 26:0.35015304 27:0.25614901 28:0.26215394 29:0.26565668 30:0.24117532 31:117.45384 
0.71484375 1:864.98573 2:0.075888866 3:5.2133126 4:3439.7685 5:1540.4001 6:1493.2845 7:0.55979198 8:0.52869022 9:0.51652535 10:0.52031535 11:0.51554679 12:0.50637059 13:0.63972848 14:0.94530296 15:0.71227604 16:0.57754845 17:0.5169019 18:0.39620014 19:0.2735732 20:0.24656301 21:0.24276388 22:0.2449145 23:0.24070536 24:0.22484863 25:0.3318083 26:0.45232143 27:0.37200645 28:0.27866815 29:0.23820951 30:0.15208205 31:117.45384 
0.71484375 1:474.04534 2:0.069525295 3:3.7277672 4:3335.3093 5:1475.7535 6:1470.9466 7:0.5031529 8:0.47067436 9:0.44991221 10:0.45985195 11:0.47535068 12:0.45070309 13:0.56378695 14:0.95786775 15:0.73205826 16:0.44918121 17:0.46194154 18:0.39962564 19:0.25314368 20:0.22713365 21:0.22885728 22:0.23098665 23:0.23693537 24:0.21771984 25:0.30812874 26:0.4865754 27:0.41787236 28:0.21558382 29:0.22816128 30:0.17897032 31:129.19922 
0.71484375 1:939.10445 2:0.07553108 3:5.4485679 4:3349.2212 5:1479.8612 6:1473.2436 7:0.62093684 8:0.64780802 9:0.69838901 10:0.64026535 11:0.58822497 12:0.59410088 13:0.81996521 14:0.85969623 15:0.63615674 16:0.60286052 17:0.53021352 18:0.49861634 19:0.27210566 20:0.28254696 21:0.31314312 22:0.2688075 23:0.24295979 24:0.25186018 25:0.38055619 26:0.39692204 27:0.27135887 28:0.2510798 29:0.2160291 30:0.19730647 31:129.19922 
0.71484375 1:809.46409 2:0.072114293 3:4.938767 4:3658.6633 5:1584.4631 6:1555.8342 7:0.42835297 8:0.38910748 9:0.37063521 10:0.41460802 11:0.44188495 12:0.47351831 13:0.95421732 14:0.85149445 15:0.43989392 16:0.37221618 17:0.37076038 18:0.34045221 19:0.2385118 20:0.20059531 21:0.19285256 22:0.21917425 23:0.24632694 24:0.26933488 25:0.5163165 26:0.47109882 27:0.24370563 28:0.18968945 29:0.18690742 30:0.15908665 31:117.45384 
0.71484375 1:563.44017 2:0.081770105 3:4.1256466 4:3521.1876 5:1554.6411 6:1522.1461 7:0.62574527 8:0.60251706 9:0.60320744 10:0.54275266 11:0.51801385 12:0.53022224 13:0.86845465 14:0.90249051 15:0.66637884 16:0.6141006 17:0.54307993 18:0.49554841 19:0.27071908 20:0.26776525 21:0.26075428 22:0.23439362 23:0.21745254 24:0.22445368 25:0.41732209 26:0.42663633 27:0.30250653 28:0.26798218 29:0.22952819 30:0.19919564 31:129.19922 
0.71484375 1:881.24224 2:0.083874662 3:5.2793608 4:3439.1715 5:1553.8553 6:1485.9009 7:0.65217004 8:0.61897743 9:0.66838851 10:0.75152445 11:0.76905257 12:0.70895051 13:0.69406395 14:0.78490739 15:0.71827709 16:0.78059996 17:0.6739119 18:0.49365863 19:0.25669369 20:0.25005366 21:0.26801115 22:0.31352954 23:0.32514403 24:0.28997607 25:0.27490339 26:0.33394843 27:0.29549334 28:0.33324762 29:0.27377741 30:0.16649974 31:129.19922 
0.71484375 1:775.49847 2:0.077571775 3:4.9250336 4:3403.1742 5:1515.5489 6:1482.9307 7:0.56645216 8:0.57644542 9:0.62069358 10:0.63762984 11:0.61339596 12:0.58062597 13:0.80628024 14:0.91052234 15:0.66727925 16:0.66201376 17:0.52531631 18:0.39989981 19:0.24758915 20:0.24535173 21:0.27091387 22:0.28047214 23:0.26301452 24:0.25022713 25:0.38557729 26:0.41792168 27:0.29948928 28:0.29301455 29:0.21652064 30:0.12587215 31:117.45384 
0.71484375 1:898.62085 2:0.080433787 3:5.2920403 4:3444.0099 5:1547.1099 6:1491.4385 7:0.63012269 8:0.60378243 9:0.56104659 10:0.57910927 11:0.61233588 12:0.58053662 13:0.67037223 14:0.88039197 15:0.71001089 16:0.70154827 17:0.63051409 18:0.48001756 19:0.27701303 20:0.26051279 21:0.23765458 22:0.24888504 23:0.26602456 24:0.24770206 25:0.30359931 26:0.4026565 27:0.32353948 28:0.3219202 29:0.27389723 30:0.19026201 31:129.19922 
0.7138671875 1:868.5141 2:0.078510998 3:5.2384753 4:3412.9321 5:1521.1662 6:1484.7698 7:0.63789335 8:0.59711563 9:0.60675326 10:0.66947101 11:0.68554613 12:0.65079981 13:0.71547911 14:0.8977835 15:0.70472524 16:0.67929799 17:0.61364174 18:0.46286541 19:0.27687504 20:0.2453454 21:0.24681296 22:0.28217046 23:0.29034668 24:0.27371241 25:0.3152991 26:0.40983487 27:0.31075909 28:0.28885988 29:0.25294303 30:0.16848598 31:117.45384 
0.7138671875 1:253.50445 2:0.09559421 3:2.5422738 4:3744.6456 5:1680.589 6:1565.1637 7:0.62556773 8:0.6030025 9:0.66132915 10:0.65507094 11:0.5893845 12:0.5727992 13:0.64823031 14:0.93001222 15:0.75840327 16:0.60242981 17:0.58658252 18:0.4942713 19:0.26954521 20:0.25854823 21:0.2909042 22:0.28748086 23:0.24734334 24:0.24278265 25:0.27548323 26:0.43583603 27:0.35181463 28:0.2512662 29:0.24220546 30:0.19449077 31:129.19922 
0.7138671875 1:757.57935 2:0.092024577 3:4.7274747 4:3781.2251 5:1691.1068 6:1573.8918 7:0.57408179 8:0.54355997 9:0.53643109 10:0.53662452 11:0.53724684 12:0.56349731 13:0.87848057 14:0.90928646 15:0.54714715 16:0.50607423 17:0.48971981 18:0.43694576 19:0.26565836 20:0.24970856 21:0.24690687 22:0.24878726 23:0.244914 24:0.26986239 25:0.43826845 26:0.43967651 27:0.25754581 28:0.22521019 29:0.21983586 30:0.18087263 31:117.45384 
0.7138671875 1:1121.1752 2:0.056106643 3:5.8778782 4:3152.2541 5:1385.8101 6:1438.323 7:0.3577593 8:0.36052556 9:0.41298421 10:0.43741373 11:0.42060389 12:0.39517522 13:0.62632522 14:0.9642998 15:0.64015756 16:0.35489791 17:0.31741259 18:0.26592995 19:0.1690551 20:0.19726469 21:0.21854237 22:0.23581469 23:0.22655957 24:0.20940908 25:0.40331987 26:0.5460612 27:0.40235714 28:0.18009407 29:0.14298818 30:0.083987984 31:129.19922 
0.7138671875 1:790.61805 2:0.077400263 3:4.9740076 4:3421.5895 5:1527.0597 6:1486.5223 7:0.56960478 8:0.56255541 9:0.62370158 10:0.68032384 11:0.65221631 12:0.62972192 13:0.90161061 14:0.81924315 15:0.63196694 16:0.60637658 17:0.47773019 18:0.41086182 19:0.23995531 20:0.24463222 21:0.27464104 22:0.30741391 23:0.28184854 24:0.273924 25:0.42543315 26:0.38854979 27:0.27293877 28:0.26031081 29:0.18730008 30:0.14230727 31:129.19922 
0.7138671875 1:849.27543 2:0.075577342 3:5.1483965 4:3416.9877 5:1526.5945 6:1488.3787 7:0.4770335 8:0.4621948 9:0.47881812 10:0.50651131 11:0.51591875 12:0.51261561 13:0.74285651 14:0.96152537 15:0.63698062 16:0.54954298 17:0.46889596 18:0.35807603 19:0.23131371 20:0.21785358 21:0.22898981 22:0.2477736 23:0.24859439 24:0.253004 25:0.42074099 26:0.46155046 27:0.33290142 28:0.26726287 29:0.21663526 30:0.13481473 31:117.45384 
0.7138671875 1:811.91027 2:0.08357446 3:5.0553842 4:3529.5844 5:1560.3248 6:1524.4716 7:0.65031924 8:0.67514089 9:0.72184589 10:0.67746972 11:0.60539382 12:0.56668193 13:0.67100733 14:0.85726575 15:0.74311198 16:0.65172798 17:0.56334224 18:0.47155573 19:0.28661724 20:0.29474317 21:0.31290556 22:0.28699422 23:0.24848967 24:0.22442963 25:0.29260787 26:0.38918611 27:0.33875634 28:0.27306824 29:0.23277923 30:0.17512683 31:129.19922 
0.7138671875 1:968.94742 2:0.080417276 3:5.5052633 4:3410.2282 5:1528.1077 6:1483.1864 7:0.59324347 8:0.56373546 9:0.57197025 10:0.62881379 11:0.6611152 12:0.60380945 13:0.78120608 14:0.89962853 15:0.66709868 16:0.64172854 17:0.51794067 18:0.41774389 19:0.25830451 20:0.24246892 21:0.24116777 22:0.27576168 23:0.2923763 24:0.2594659 25:0.37813319 26:0.42029706 27:0.29985565 28:0.28608793 29:0.21437177 30:0.14639853 31:117.45384 
-1.2861328125 1:688.12581 2:0.15952846 3:4.5085444 4:3686.5834 5:1796.97 6:1621.7605 7:0.60293494 8:0.55853029 9:0.57966302 10:0.55221413 11:0.52585459 12:0.57537349 13:0.92169109 14:0.86110226 15:0.52359116 16:0.51589997 17:0.49318495 18:0.48244003 19:0.27324528 20:0.25408728 21:0.26706435 22:0.25252639 23:0.23504918 24:0.27125 25:0.44565173 26:0.42794364 27:0.23222335 28:0.22504692 29:0.20784206 30:0.20278193 31:117.45384 
-1.2861328125 1:615.80794 2:0.083371046 3:4.2819047 4:3701.9253 5:1600.8072 6:1568.4371 7:0.69365278 8:0.70303358 9:0.69971504 10:0.6553968 11:0.64702106 12:0.62766567 13:0.83058466 14:0.78890986 15:0.61223736 16:0.6531561 17:0.56713712 18:0.48384963 19:0.29998191 20:0.30249471 21:0.30475686 22:0.26928718 23:0.2710188 24:0.25897848 25:0.36979583 26:0.35348812 27:0.24814617 28:0.26321902 29:0.22129402 30:0.17973643 31:117.45384 
-1.2861328125 1:414.29877 2:0.074479167 3:3.5093298 4:3112.4251 5:1429.1432 6:1405.4304 7:0.57245231 8:0.53962955 9:0.5590958 10:0.6603709 11:0.68164268 12:0.65306464 13:0.74115007 14:0.8860673 15:0.6864091 16:0.6327653 17:0.52914944 18:0.40805287 19:0.24502553 20:0.23537058 21:0.24079536 22:0.2927913 23:0.30975808 24:0.28795012 25:0.34455686 26:0.42028965 27:0.31569401 28:0.27802926 29:0.21906556 30:0.13156677 31:117.45384 
-1.2861328125 1:609.78629 2:0.10293417 3:3.7963872 4:3365.8113 5:1690.9004 6:1431.1685 7:0.65711006 8:0.63427672 9:0.6034434 10:0.62557683 11:0.69402265 12:0.67254315 13:0.83759158 14:0.84869939 15:0.65671971 16:0.60140404 17:0.52542516 18:0.50125664 19:0.2875029 20:0.27001794 21:0.25072982 22:0.26328575 23:0.29880632 24:0.29267107 25:0.38169404 26:0.38795992 27:0.27947281 28:0.24628448 29:0.20649492 30:0.19220658 31:112.34715 
-1.2861328125 1:873.12422 2:0.17686725 3:4.467206 4:3693.0239 5:1918.6054 6:1547.0191 7:0.67177787 8:0.60176556 9:0.6168654 10:0.60887036 11:0.58368516 12:0.61685997 13:0.81410428 14:0.82752433 15:0.63594022 16:0.58565165 17:0.53760033 18:0.53480562 19:0.29875639 20:0.2575709 21:0.26948132 22:0.25596836 23:0.252822 24:0.27035845 25:0.38851924 26:0.38720333 27:0.28672546 28:0.24870885 29:0.21994408 30:0.21999281 31:123.04688 
-1.2861328125 1:482.08722 2:0.084258289 3:3.8151462 4:3514.0087 5:1579.01 6:1504.539 7:0.56450702 8:0.61459919 9:0.7112483 10:0.68064364 11:0.58215183 12:0.53134619 13:0.83028079 14:0.8788149 15:0.61787946 16:0.61451831 17:0.54322562 18:0.49454514 19:0.23638277 20:0.26311575 21:0.31395931 22:0.30131517 23:0.24571967 24:0.22132588 25:0.39182266 26:0.40300108 27:0.26115878 28:0.26615902 29:0.22702184 30:0.18585717 31:129.19922 
-1.2861328125 1:266.75599 2:0.0746024 3:2.3013089 4:3334.4377 5:1482.4773 6:1474.3134 7:0.72867189 8:0.70886922 9:0.7211945 10:0.73025274 11:0.66441205 12:0.63706946 13:0.68051263 14:0.7865283 15:0.65411816 16:0.53011095 17:0.56502053 18:0.55328327 19:0.31582949 20:0.30463947 21:0.3111902 22:0.32503065 23:0.27966889 24:0.26881748 25:0.2902526 26:0.34980039 27:0.28363422 28:0.20559569 29:0.22381031 30:0.21209512 31:117.45384 
-1.2861328125 1:358.15373 2:0.12673611 3:3.2171855 4:3951.4468 5:1909.2943 6:1582.5119 7:0.53013906 8:0.57576247 9:0.6040213 10:0.57934371 11:0.54119772 12:0.58953283 13:0.95532307 14:0.77711465 15:0.53825624 16:0.53823808 17:0.49591363 18:0.45580312 19:0.24042155 20:0.25729986 21:0.279466 22:0.26548478 23:0.2437937 24:0.28184394 25:0.45596589 26:0.40268899 27:0.23985701 28:0.24426693 29:0.21676922 30:0.18462984 31:143.55469 
-1.2861328125 1:692.9941 2:0.094818191 3:3.8360713 4:3295.8561 5:1616.5479 6:1431.9599 7:0.65983165 8:0.65773358 9:0.61995152 10:0.59889141 11:0.61421196 12:0.65406956 13:0.65606845 14:0.82704685 15:0.76482359 16:0.59070042 17:0.60755117 18:0.54483494 19:0.28935673 20:0.28254636 21:0.26901141 22:0.25441106 23:0.25790258 24:0.27931425 25:0.28291447 26:0.3763142 27:0.35300278 28:0.24733231 29:0.25917386 30:0.22288167 31:95.703125 
-1.2861328125 1:731.78776 2:0.19421655 3:4.1860685 4:3792.3445 5:1978.4538 6:1582.238 7:0.5586323 8:0.50683963 9:0.48616964 10:0.47872128 11:0.48128582 12:0.50734376 13:0.89947444 14:0.91942045 15:0.56625817 16:0.47828788 17:0.42808002 18:0.42925941 19:0.27126614 20:0.23839021 21:0.23068536 22:0.22256671 23:0.22557302 24:0.24594329 25:0.45623955 26:0.4669102 27:0.28678217 28:0.22222003 29:0.18598709 30:0.19281297 31:129.19922 
-1.2861328125 1:477.98787 2:0.076330656 3:3.8810797 4:3335.7775 5:1497.2459 6:1466.7194 7:0.60224156 8:0.60922898 9:0.63588076 10:0.71721988 11:0.73784197 12:0.67982679 13:0.71819348 14:0.86618912 15:0.70046011 16:0.68637842 17:0.62278282 18:0.46127241 19:0.24282705 20:0.24727166 21:0.263795 22:0.3058795 23:0.3214519 24:0.2905603 25:0.30403997 26:0.39278772 27:0.29588918 28:0.28822322 29:0.25445779 30:0.1600836 31:117.45384 
-1.2861328125 1:471.67256 2:0.14349977 3:3.731096 4:3706.396 5:1763.1645 6:1581.6593 7:0.56740655 8:0.53348252 9:0.54544533 10:0.50051228 11:0.49571135 12:0.53745281 13:0.93664805 14:0.87295437 15:0.51487618 16:0.47535156 17:0.43762249 18:0.46318748 19:0.2738543 20:0.2492553 21:0.26537162 22:0.23846914 23:0.2348538 24:0.26509083 25:0.45786988 26:0.44696737 27:0.23634428 28:0.21577929 29:0.1817293 30:0.20045066 31:117.45384 
-1.2861328125 1:590.41184 2:0.085543532 3:4.1163769 4:3470.9523 5:1580.0882 6:1491.9601 7:0.68199138 8:0.64144235 9:0.71084656 10:0.70289065 11:0.63029402 12:0.59822421 13:0.78978185 14:0.80236851 15:0.8119352 16:0.69887098 17:0.55551067 18:0.50337544 19:0.2809385 20:0.26021384 21:0.29493268 22:0.29468419 23:0.25075221 24:0.23662334 25:0.34981263 26:0.35153304 27:0.35380432 28:0.29629672 29:0.21628844 30:0.17973963 31:129.19922 
-1.2861328125 1:569.91836 2:0.10499108 3:4.1451521 4:3745.191 5:1758.8108 6:1565.6856 7:0.68552991 8:0.66188447 9:0.68786192 10:0.65650604 11:0.62450325 12:0.63751009 13:0.89215724 14:0.81995532 15:0.57310215 16:0.61333913 17:0.6162291 18:0.55912212 19:0.28713407 20:0.27525333 21:0.28846849 22:0.28041283 23:0.25994205 24:0.26385497 25:0.3990762 26:0.37355189 27:0.22340786 28:0.23666248 29:0.24682482 30:0.22771539 31:99.384014 
-1.2861328125 1:573.89597 2:0.1524959 3:3.6772633 4:3680.9814 5:1753.8066 6:1606.2986 7:0.63692254 8:0.60600707 9:0.60091444 10:0.59818271 11:0.57090748 12:0.58984909 13:0.9025116 14:0.86581479 15:0.55921185 16:0.54626531 17:0.52401402 18:0.51600507 19:0.28534273 20:0.26761998 21:0.25857015 22:0.27334486 23:0.24654505 24:0.25498511 25:0.43274889 26:0.41168712 27:0.23972839 28:0.22615864 29:0.21344931 30:0.21169688 31:129.19922 
-1.2861328125 1:702.99234 2:0.089267897 3:4.4660292 4:3664.799 5:1753.8613 6:1550.5219 7:0.53487298 8:0.50790567 9:0.54724782 10:0.60425653 11:0.60670048 12:0.56894588 13:0.82247877 14:0.90483262 15:0.60872143 16:0.56846466 17:0.44590191 18:0.40141924 19:0.25178657 20:0.23725976 21:0.26035607 22:0.28136623 23:0.2784125 24:0.24988139 25:0.41743837 26:0.43657333 27:0.28195488 28:0.25017257 29:0.17659954 30:0.15083641 31:117.45384 
-1.2861328125 1:522.71015 2:0.11003862 3:3.9003518 4:3860.0012 5:1828.2009 6:1570.6619 7:0.43679682 8:0.42077211 9:0.49091026 10:0.51017282 11:0.47317939 12:0.44200803 13:0.55684821 14:0.96960497 15:0.75526307 16:0.47500415 17:0.45840718 18:0.4220153 19:0.22161747 20:0.20291711 21:0.24804754 22:0.25704379 23:0.23566839 24:0.21670936 25:0.30035176 26:0.47909746 27:0.43913305 28:0.23588476 29:0.22774075 30:0.19844214 31:135.99918 
-1.2861328125 1:240.85269 2:0.07200907 3:2.3426228 4:3143.587 5:1412.9034 6:1419.3031 7:0.62622768 8:0.59780855 9:0.62701255 10:0.72794476 11:0.71890592 12:0.65214863 13:0.78588174 14:0.83922876 15:0.66599052 16:0.67623466 17:0.53579749 18:0.4310208 19:0.25319753 20:0.24662239 21:0.26098246 22:0.31426681 23:0.31484561 24:0.27760587 25:0.35407728 26:0.38514324 27:0.27978823 28:0.28947028 29:0.20949964 30:0.13869487 31:129.19922 
-1.2861328125 1:219.78707 2:0.077690292 3:2.3457935 4:3268.558 5:1507.7111 6:1445.7521 7:0.5836871 8:0.56105422 9:0.5764251 10:0.62800995 11:0.6426619 12:0.65097475 13:0.89496661 14:0.79808866 15:0.63511742 16:0.60682702 17:0.46337112 18:0.43856395 19:0.24975436 20:0.24229237 21:0.25083398 22:0.2733723 23:0.29212794 24:0.29171726 25:0.42618203 26:0.38912154 27:0.2826964 28:0.27550255 29:0.17547191 30:0.15377672 31:129.19922 
-1.2861328125 1:933.71625 2:0.21818487 3:4.6371741 4:3946.9371 5:2177.8163 6:1593.6741 7:0.67277905 8:0.61784323 9:0.61173491 10:0.59538703 11:0.55928048 12:0.57505016 13:0.82506733 14:0.89092404 15:0.63095527 16:0.53647171 17:0.52414251 18:0.54838568 19:0.30262339 20:0.26807288 21:0.26474794 22:0.26300391 23:0.23355064 24:0.25213674 25:0.39727616 26:0.41540396 27:0.28811802 28:0.21934191 29:0.20974404 30:0.22968003 31:135.99918 
-1.2861328125 1:639.73681 2:0.09056483 3:4.2529225 4:3671.0163 5:1647.6332 6:1558.3689 7:0.72752783 8:0.704006 9:0.72388333 10:0.75599495 11:0.68948492 12:0.6465153 13:0.70198682 14:0.84275463 15:0.66591366 16:0.69865625 17:0.65573786 18:0.56558138 19:0.29779822 20:0.28674642 21:0.29176838 22:0.31512069 23:0.2781872 24:0.26279664 25:0.28781074 26:0.36829791 27:0.25775194 28:0.27165987 29:0.2675785 30:0.21124807 31:143.55469 
-1.2861328125 1:208.29311 2:0.072275342 3:2.3812163 4:3367.9912 5:1475.5652 6:1486.6156 7:0.66125489 8:0.6427633 9:0.67248401 10:0.6550623 11:0.60634995 12:0.62113248 13:0.82164667 14:0.78197159 15:0.54845524 16:0.54605529 17:0.53304986 18:0.52898623 19:0.29676258 20:0.28017951 21:0.30612566 22:0.29345266 23:0.2638421 24:0.26896301 25:0.37235116 26:0.36249271 27:0.23642512 28:0.21776986 29:0.21718334 30:0.21709078 31:129.19922 
-1.2861328125 1:276.34944 2:0.10215301 3:2.8114109 4:3602.1177 5:1683.4625 6:1503.9929 7:0.61106898 8:0.63148018 9:0.68698849 10:0.66038104 11:0.62086062 12:0.61275179 13:0.82788945 14:0.86798616 15:0.6442231 16:0.66205428 17:0.57039004 18:0.51438891 19:0.25258436 20:0.26327433 21:0.29913477 22:0.2886155 23:0.25513402 24:0.25501424 25:0.38158229 26:0.39330176 27:0.26851534 28:0.27407919 29:0.22552059 30:0.19704753 31:143.55469 
-1.2861328125 1:753.34351 2:0.09326413 3:4.7516632 4:3706.1035 5:1687.5545 6:1570.7663 7:0.79815638 8:0.74940712 9:0.67639596 10:0.70895094 11:0.66694141 12:0.60225602 13:0.68573799 14:0.79454055 15:0.62104374 16:0.63212573 17:0.62553976 18:0.57105946 19:0.34997845 20:0.3307675 21:0.27676516 22:0.29306324 23:0.27488529 24:0.24549599 25:0.28413211 26:0.35417415 27:0.24727256 28:0.25550634 29:0.24769121 30:0.22324928 31:143.55469 
-1.2861328125 1:613.82756 2:0.17372926 3:3.9571741 4:3716.2587 5:1849.8471 6:1613.6823 7:0.61871866 8:0.58399199 9:0.60051568 10:0.59251939 11:0.59593468 12:0.61005786 13:0.89678863 14:0.85633171 15:0.56032944 16:0.56353918 17:0.55211062 18:0.55095111 19:0.26397812 20:0.2455516 21:0.25511715 22:0.25172463 23:0.25897143 24:0.2645275 25:0.43133567 26:0.40831899 27:0.2459188 28:0.24132158 29:0.23651447 30:0.22649936 31:129.19922 
-1.2861328125 1:756.77602 2:0.22453673 3:4.3059192 4:3958.5905 5:2151.6965 6:1606.3229 7:0.66839903 8:0.61256332 9:0.63136574 10:0.59927686 11:0.57132027 12:0.5795168 13:0.84596539 14:0.88840797 15:0.61381121 16:0.55862263 17:0.53456923 18:0.51914261 19:0.2961431 20:0.26334506 21:0.27162615 22:0.25990514 23:0.24486587 24:0.24799581 25:0.4069389 26:0.40755414 27:0.27788764 28:0.23177645 29:0.22462435 30:0.20415634 31:117.45384 
-1.2861328125 1:476.29855 2:0.092046913 3:3.6329188 4:3686.7808 5:1681.9424 6:1545.8194 7:0.56443269 8:0.59062657 9:0.58480906 10:0.57423118 11:0.58082328 12:0.59688286 13:0.86249181 14:0.84370097 15:0.67883134 16:0.63466348 17:0.53236385 18:0.44241371 19:0.23508249 20:0.26081215 21:0.25653723 22:0.24348284 23:0.25144963 24:0.2571166 25:0.40852622 26:0.4005326 27:0.31474738 28:0.28886958 29:0.22275812 30:0.15939524 31:129.19922 
-1.2861328125 1:513.24797 2:0.10526235 3:3.5099163 4:3409.4758 5:1701.155 6:1434.2149 7:0.65614246 8:0.63128384 9:0.63506289 10:0.6489646 11:0.66717342 12:0.63261277 13:0.83076358 14:0.83891158 15:0.65436021 16:0.61697433 17:0.52557289 18:0.49120713 19:0.28317258 20:0.26570313 21:0.26404022 22:0.27316278 23:0.28579215 24:0.26244268 25:0.37857382 26:0.38832204 27:0.27942681 28:0.25587951 29:0.20523111 30:0.19644966 31:99.384014 
-1.2861328125 1:558.48834 2:0.11159316 3:4.138905 4:3764.125 5:1798.743 6:1563.5295 7:0.73412281 8:0.70699594 9:0.72647901 10:0.72481533 11:0.69160608 12:0.71869893 13:0.78847617 14:0.75559585 15:0.59391314 16:0.65479876 17:0.66896988 18:0.62425013 19:0.30030417 20:0.28853061 21:0.30554892 22:0.30623925 23:0.28013795 24:0.29840752 25:0.3308538 26:0.31051173 27:0.22100098 28:0.25664493 29:0.26774918 30:0.23430324 31:99.384014 
-1.2861328125 1:350.65609 2:0.13773829 3:2.987869 4:3628.3974 5:1763.5517 6:1576.1856 7:0.61517504 8:0.62139229 9:0.617245 10:0.57170254 11:0.56937249 12:0.62660132 13:0.92176829 14:0.83583929 15:0.55741993 16:0.54621879 17:0.51171629 18:0.51069155 19:0.27358785 20:0.27410898 21:0.26906191 22:0.24920807 23:0.24831313 24:0.27831651 25:0.43866006 26:0.40711295 27:0.23455141 28:0.2273899 29:0.2073015 30:0.21489698 31:129.19922 
-1.2861328125 1:367.74279 2:0.085815728 3:3.2562983 4:3530.8925 5:1590.9832 6:1504.0843 7:0.5430146 8:0.53789967 9:0.64031162 10:0.63669532 11:0.54098888 12:0.52161463 13:0.7030255 14:0.92024929 15:0.66576348 16:0.56815858 17:0.53850497 18:0.48048834 19:0.24302993 20:0.2428356 21:0.30129606 22:0.29504778 23:0.23901184 24:0.22735295 25:0.35156728 26:0.42900368 27:0.32024136 28:0.25371914 29:0.23447213 30:0.20099146 31:129.19922 
-1.2861328125 1:451.58688 2:0.075400532 3:3.2621245 4:3057.8969 5:1429.0359 6:1379.4335 7:0.62774848 8:0.60010508 9:0.63995078 10:0.64712755 11:0.6174792 12:0.58334244 13:0.72988283 14:0.7894141 15:0.65811188 16:0.63728591 17:0.54551841 18:0.50689964 19:0.2796543 20:0.26658197 21:0.28709322 22:0.28629719 23:0.27719627 24:0.26029655 25:0.34016437 26:0.37063721 27:0.29542448 28:0.2825183 29:0.22595665 30:0.19261768 31:129.19922 
-1.2861328125 1:311.89027 2:0.11688683 3:2.933255 4:3508.9044 5:1615.9008 6:1530.4136 7:0.56456955 8:0.52957483 9:0.54351657 10:0.55179299 11:0.51216893 12:0.51756482 13:0.93287761 14:0.88610731 15:0.51666745 16:0.49264102 17:0.45505801 18:0.44815566 19:0.26779682 20:0.24834343 21:0.25848336 22:0.25818623 23:0.23432284 24:0.24588385 25:0.45744118 26:0.45119695 27:0.24212749 28:0.22439177 29:0.19475423 30:0.1898183 31:117.45384 
-1.2861328125 1:488.6711 2:0.073716316 3:3.7911425 4:3407.8635 5:1498.602 6:1498.1625 7:0.61949064 8:0.55893754 9:0.53923953 10:0.53861651 11:0.50381281 12:0.53538336 13:0.90362384 14:0.92325239 15:0.53647645 16:0.51877738 17:0.51436305 18:0.47818926 19:0.29753447 20:0.25395973 21:0.24290497 22:0.23817206 23:0.21942461 24:0.24884007 25:0.44453184 26:0.44860843 27:0.23970543 28:0.22806394 29:0.22587442 30:0.1999368 31:99.384014 
-1.2861328125 1:371.79398 2:0.074807846 3:3.2178733 4:3392.4169 5:1490.5654 6:1494.9649 7:0.65637282 8:0.61585257 9:0.63434403 10:0.63183107 11:0.60649933 12:0.67027786 13:0.88598341 14:0.81488612 15:0.57374465 16:0.58827115 17:0.58743436 18:0.55015072 19:0.28164694 20:0.25706848 21:0.26927562 22:0.26823747 23:0.26074064 24:0.28856029 25:0.40962984 26:0.38501714 27:0.23635968 28:0.24332459 29:0.23827871 30:0.22041177 31:117.45384 
-1.2861328125 1:661.43448 2:0.11355425 3:3.8501759 4:3572.5228 5:1792.505 6:1480.5553 7:0.65787183 8:0.61838987 9:0.58069016 10:0.59264732 11:0.58456203 12:0.62801747 13:0.72940066 14:0.88521892 15:0.68994927 16:0.6067747 17:0.58463826 18:0.51731821 19:0.29308443 20:0.27026739 21:0.24933815 22:0.25187185 23:0.25438615 24:0.26675185 25:0.3452179 26:0.40410905 27:0.31212895 28:0.25570089 29:0.24897926 30:0.21698375 31:129.19922 
-1.2861328125 1:705.95334 2:0.07381225 3:4.6465774 4:3446.665 5:1506.3318 6:1511.8677 7:0.62861027 8:0.64600998 9:0.63230338 10:0.62831636 11:0.62449067 12:0.62161248 13:0.90960008 14:0.80625853 15:0.57727863 16:0.60116838 17:0.54839572 18:0.48889629 19:0.26100848 20:0.28334995 21:0.27807799 22:0.26656688 23:0.26909375 24:0.27420858 25:0.42415186 26:0.3837954 27:0.2385328 28:0.25337277 29:0.20825752 30:0.18467169 31:129.19922 
-1.2861328125 1:221.2194 2:0.087453182 3:2.5384297 4:3515.152 5:1584.9081 6:1518.5075 7:0.71882821 8:0.73296891 9:0.71133421 10:0.71467702 11:0.71013665 12:0.7128512 13:0.79054081 14:0.69828676 15:0.58423076 16:0.64795806 17:0.64719405 18:0.59028251 19:0.30257516 20:0.3103117 21:0.2943815 22:0.29861503 23:0.28882323 24:0.29358749 25:0.34342317 26:0.2907312 27:0.22719416 28:0.25705313 29:0.25576449 30:0.22500369 31:99.384014 
-1.2861328125 1:790.51251 2:0.084096499 3:4.2497053 4:3566.6162 5:1672.7232 6:1531.9744 7:0.7473199 8:0.72865331 9:0.75663951 10:0.75276479 11:0.63113572 12:0.57343206 13:0.68321577 14:0.78639195 15:0.64747626 16:0.64899335 17:0.6260969 18:0.57309655 19:0.32039341 20:0.30930944 21:0.32454736 22:0.33331473 23:0.25535287 24:0.22144305 25:0.28439126 26:0.33806826 27:0.25683644 28:0.2509501 29:0.25305586 30:0.22257553 31:117.45384 
-1.2861328125 1:874.47314 2:0.073035788 3:5.2149591 4:3340.1951 5:1459.589 6:1469.9383 7:0.6590806 8:0.62605827 9:0.62349127 10:0.61466447 11:0.59971601 12:0.61298475 13:0.892087 14:0.82085903 15:0.56094658 16:0.57083114 17:0.53264327 18:0.55384105 19:0.28967795 20:0.26836573 21:0.26510386 22:0.27171465 23:0.25807344 24:0.26595528 25:0.41251839 26:0.39602058 27:0.23629094 28:0.22859363 29:0.22397701 30:0.22598859 31:129.19922 
